<?xml version="1.0"?>
<opencv_storage>
<cascade>
  <stageType>BOOST</stageType>
  <featureType>HAAR</featureType>
  <height>48</height>
  <width>48</width>
  <stageParams>
    <boostType>GAB</boostType>
    <minHitRate>9.9500000476837158e-01</minHitRate>
    <maxFalseAlarm>5.0000000000000000e-01</maxFalseAlarm>
    <weightTrimRate>9.4999999999999996e-01</weightTrimRate>
    <maxDepth>1</maxDepth>
    <maxWeakCount>100</maxWeakCount></stageParams>
  <featureParams>
    <maxCatCount>0</maxCatCount>
    <featSize>1</featSize>
    <mode>BASIC</mode></featureParams>
  <stageNum>14</stageNum>
  <stages>
    <!-- stage 0 -->
    <_>
      <maxWeakCount>2</maxWeakCount>
      <stageThreshold>-2.4203622341156006e-01</stageThreshold>
      <weakClassifiers>
        <_>
          <internalNodes>
            0 -1 88 -1.7421153187751770e-01</internalNodes>
          <leafValues>
            -9.6659511327743530e-01 9.0080356597900391e-01</leafValues></_>
        <_>
          <internalNodes>
            0 -1 103 -1.4334005117416382e-01</internalNodes>
          <leafValues>
            7.2455883026123047e-01 -8.4630703926086426e-01</leafValues></_></weakClassifiers></_>
    <!-- stage 1 -->
    <_>
      <maxWeakCount>3</maxWeakCount>
      <stageThreshold>-9.4217437505722046e-01</stageThreshold>
      <weakClassifiers>
        <_>
          <internalNodes>
            0 -1 99 -7.2680443525314331e-02</internalNodes>
          <leafValues>
            -8.1630784273147583e-01 8.0489224195480347e-01</leafValues></_>
        <_>
          <internalNodes>
            0 -1 131 -9.3253646045923233e-03</internalNodes>
          <leafValues>
            6.7872601747512817e-01 -8.3964717388153076e-01</leafValues></_>
        <_>
          <internalNodes>
            0 -1 17 6.5932124853134155e-02</internalNodes>
          <leafValues>
            -6.6878098249435425e-01 7.1378064155578613e-01</leafValues></_></weakClassifiers></_>
    <!-- stage 2 -->
    <_>
      <maxWeakCount>5</maxWeakCount>
      <stageThreshold>-1.4288022518157959e+00</stageThreshold>
      <weakClassifiers>
        <_>
          <internalNodes>
            0 -1 100 1.8244773149490356e-02</internalNodes>
          <leafValues>
            -8.6961722373962402e-01 4.7307002544403076e-01</leafValues></_>
        <_>
          <internalNodes>
            0 -1 85 -2.3893902078270912e-02</internalNodes>
          <leafValues>
            -8.5094416141510010e-01 3.9694410562515259e-01</leafValues></_>
        <_>
          <internalNodes>
            0 -1 140 -1.0241407901048660e-02</internalNodes>
          <leafValues>
            4.9075293540954590e-01 -7.3822367191314697e-01</leafValues></_>
        <_>
          <internalNodes>
            0 -1 20 1.6843819618225098e-01</internalNodes>
          <leafValues>
            -5.2283930778503418e-01 6.3191765546798706e-01</leafValues></_>
        <_>
          <internalNodes>
            0 -1 150 -6.9550017360597849e-04</internalNodes>
          <leafValues>
            3.0493387579917908e-01 -7.0231348276138306e-01</leafValues></_></weakClassifiers></_>
    <!-- stage 3 -->
    <_>
      <maxWeakCount>7</maxWeakCount>
      <stageThreshold>-1.8612920045852661e+00</stageThreshold>
      <weakClassifiers>
        <_>
          <internalNodes>
            0 -1 124 -1.0452340357005596e-02</internalNodes>
          <leafValues>
            -6.6186875104904175e-01 5.1688730716705322e-01</leafValues></_>
        <_>
          <internalNodes>
            0 -1 137 1.2743772938847542e-02</internalNodes>
          <leafValues>
            -7.2699022293090820e-01 3.8935270905494690e-01</leafValues></_>
        <_>
          <internalNodes>
            0 -1 82 -3.2386973500251770e-01</internalNodes>
          <leafValues>
            6.6686934232711792e-01 -4.4259375333786011e-01</leafValues></_>
        <_>
          <internalNodes>
            0 -1 159 3.0704418895766139e-04</internalNodes>
          <leafValues>
            3.9702552556991577e-01 -6.5671485662460327e-01</leafValues></_>
        <_>
          <internalNodes>
            0 -1 30 -6.3560262322425842e-02</internalNodes>
          <leafValues>
            -7.8261005878448486e-01 3.2054004073143005e-01</leafValues></_>
        <_>
          <internalNodes>
            0 -1 9 7.0722009986639023e-03</internalNodes>
          <leafValues>
            -5.1371610164642334e-01 3.8831400871276855e-01</leafValues></_>
        <_>
          <internalNodes>
            0 -1 117 -3.7605038960464299e-04</internalNodes>
          <leafValues>
            -2.9629129171371460e-01 6.3185888528823853e-01</leafValues></_></weakClassifiers></_>
    <!-- stage 4 -->
    <_>
      <maxWeakCount>7</maxWeakCount>
      <stageThreshold>-1.2610793113708496e+00</stageThreshold>
      <weakClassifiers>
        <_>
          <internalNodes>
            0 -1 97 -2.4201190471649170e-01</internalNodes>
          <leafValues>
            5.3727221488952637e-01 -6.5725225210189819e-01</leafValues></_>
        <_>
          <internalNodes>
            0 -1 135 -1.2627480551600456e-02</internalNodes>
          <leafValues>
            3.5080048441886902e-01 -6.8031489849090576e-01</leafValues></_>
        <_>
          <internalNodes>
            0 -1 98 3.9251628331840038e-03</internalNodes>
          <leafValues>
            -8.4295397996902466e-01 2.3504102230072021e-01</leafValues></_>
        <_>
          <internalNodes>
            0 -1 112 -8.5021955892443657e-03</internalNodes>
          <leafValues>
            -7.2747415304183960e-01 2.3638184368610382e-01</leafValues></_>
        <_>
          <internalNodes>
            0 -1 55 1.2592829298228025e-03</internalNodes>
          <leafValues>
            2.2550597786903381e-01 -7.3672574758529663e-01</leafValues></_>
        <_>
          <internalNodes>
            0 -1 122 -5.9643166605383158e-04</internalNodes>
          <leafValues>
            1.9682908058166504e-01 -7.0221555233001709e-01</leafValues></_>
        <_>
          <internalNodes>
            0 -1 3 6.7418459802865982e-03</internalNodes>
          <leafValues>
            1.4917743206024170e-01 -8.8452941179275513e-01</leafValues></_></weakClassifiers></_>
    <!-- stage 5 -->
    <_>
      <maxWeakCount>7</maxWeakCount>
      <stageThreshold>-1.2333487272262573e+00</stageThreshold>
      <weakClassifiers>
        <_>
          <internalNodes>
            0 -1 83 -3.4137654304504395e-01</internalNodes>
          <leafValues>
            6.8350434303283691e-01 -4.8082035779953003e-01</leafValues></_>
        <_>
          <internalNodes>
            0 -1 130 -2.0565209910273552e-02</internalNodes>
          <leafValues>
            4.1772907972335815e-01 -6.8914645910263062e-01</leafValues></_>
        <_>
          <internalNodes>
            0 -1 27 4.7918986529111862e-03</internalNodes>
          <leafValues>
            -4.0446177124977112e-01 5.6211149692535400e-01</leafValues></_>
        <_>
          <internalNodes>
            0 -1 106 5.4679568856954575e-03</internalNodes>
          <leafValues>
            -8.7720793485641479e-01 1.8513311445713043e-01</leafValues></_>
        <_>
          <internalNodes>
            0 -1 144 -1.0484522208571434e-02</internalNodes>
          <leafValues>
            2.3072214424610138e-01 -7.7897876501083374e-01</leafValues></_>
        <_>
          <internalNodes>
            0 -1 119 -1.3513460755348206e-01</internalNodes>
          <leafValues>
            -2.9880008101463318e-01 5.0244635343551636e-01</leafValues></_>
        <_>
          <internalNodes>
            0 -1 68 1.6599416732788086e-02</internalNodes>
          <leafValues>
            -5.7722169160842896e-01 3.1428572535514832e-01</leafValues></_></weakClassifiers></_>
    <!-- stage 6 -->
    <_>
      <maxWeakCount>10</maxWeakCount>
      <stageThreshold>-1.3261079788208008e+00</stageThreshold>
      <weakClassifiers>
        <_>
          <internalNodes>
            0 -1 18 1.7390337586402893e-01</internalNodes>
          <leafValues>
            -4.8693990707397461e-01 4.8301520943641663e-01</leafValues></_>
        <_>
          <internalNodes>
            0 -1 110 4.7118333168327808e-03</internalNodes>
          <leafValues>
            -4.7817870974540710e-01 4.1672515869140625e-01</leafValues></_>
        <_>
          <internalNodes>
            0 -1 160 -2.5587697746232152e-04</internalNodes>
          <leafValues>
            3.0668085813522339e-01 -6.6797977685928345e-01</leafValues></_>
        <_>
          <internalNodes>
            0 -1 125 -3.7314623594284058e-02</internalNodes>
          <leafValues>
            -5.9390962123870850e-01 2.9583790898323059e-01</leafValues></_>
        <_>
          <internalNodes>
            0 -1 90 -3.1906971335411072e-01</internalNodes>
          <leafValues>
            6.0218572616577148e-01 -2.6330474019050598e-01</leafValues></_>
        <_>
          <internalNodes>
            0 -1 138 8.8139548897743225e-03</internalNodes>
          <leafValues>
            -7.5484979152679443e-01 1.5780001878738403e-01</leafValues></_>
        <_>
          <internalNodes>
            0 -1 12 9.4021428376436234e-03</internalNodes>
          <leafValues>
            -3.2009741663932800e-01 3.6908558011054993e-01</leafValues></_>
        <_>
          <internalNodes>
            0 -1 72 5.8589479885995388e-04</internalNodes>
          <leafValues>
            1.5958820283412933e-01 -6.9701218605041504e-01</leafValues></_>
        <_>
          <internalNodes>
            0 -1 123 -4.3702567927539349e-04</internalNodes>
          <leafValues>
            1.6008019447326660e-01 -6.0497963428497314e-01</leafValues></_>
        <_>
          <internalNodes>
            0 -1 108 -2.9373739380389452e-04</internalNodes>
          <leafValues>
            -7.7703005075454712e-01 1.4228531718254089e-01</leafValues></_></weakClassifiers></_>
    <!-- stage 7 -->
    <_>
      <maxWeakCount>12</maxWeakCount>
      <stageThreshold>-1.2404814958572388e+00</stageThreshold>
      <weakClassifiers>
        <_>
          <internalNodes>
            0 -1 84 -3.6986041069030762e-01</internalNodes>
          <leafValues>
            6.8234699964523315e-01 -3.6905375123023987e-01</leafValues></_>
        <_>
          <internalNodes>
            0 -1 102 -2.9194555245339870e-03</internalNodes>
          <leafValues>
            2.1763812005519867e-01 -6.5048110485076904e-01</leafValues></_>
        <_>
          <internalNodes>
            0 -1 66 2.4994112551212311e-02</internalNodes>
          <leafValues>
            -4.4464218616485596e-01 2.9613369703292847e-01</leafValues></_>
        <_>
          <internalNodes>
            0 -1 43 1.6068193316459656e-01</internalNodes>
          <leafValues>
            1.8326111137866974e-01 -7.8182613849639893e-01</leafValues></_>
        <_>
          <internalNodes>
            0 -1 104 -1.6485396772623062e-03</internalNodes>
          <leafValues>
            -5.9621381759643555e-01 1.4109513163566589e-01</leafValues></_>
        <_>
          <internalNodes>
            0 -1 146 -4.1303699836134911e-03</internalNodes>
          <leafValues>
            2.7096489071846008e-01 -3.9602595567703247e-01</leafValues></_>
        <_>
          <internalNodes>
            0 -1 101 1.6791506204754114e-03</internalNodes>
          <leafValues>
            -9.0006297826766968e-01 1.0426261276006699e-01</leafValues></_>
        <_>
          <internalNodes>
            0 -1 8 8.8626109063625336e-03</internalNodes>
          <leafValues>
            -3.6900025606155396e-01 3.2995110750198364e-01</leafValues></_>
        <_>
          <internalNodes>
            0 -1 157 -7.6243755756877363e-05</internalNodes>
          <leafValues>
            2.0856556296348572e-01 -5.6912356615066528e-01</leafValues></_>
        <_>
          <internalNodes>
            0 -1 95 -1.2501910328865051e-02</internalNodes>
          <leafValues>
            -5.8067548274993896e-01 2.1302013099193573e-01</leafValues></_>
        <_>
          <internalNodes>
            0 -1 155 1.2394441291689873e-03</internalNodes>
          <leafValues>
            1.2555287778377533e-01 -6.7121988534927368e-01</leafValues></_>
        <_>
          <internalNodes>
            0 -1 41 1.0238961840514094e-04</internalNodes>
          <leafValues>
            2.0015218853950500e-01 -5.1782017946243286e-01</leafValues></_></weakClassifiers></_>
    <!-- stage 8 -->
    <_>
      <maxWeakCount>15</maxWeakCount>
      <stageThreshold>-1.4486093521118164e+00</stageThreshold>
      <weakClassifiers>
        <_>
          <internalNodes>
            0 -1 126 -7.3989279568195343e-02</internalNodes>
          <leafValues>
            5.3477025032043457e-01 -3.9599326252937317e-01</leafValues></_>
        <_>
          <internalNodes>
            0 -1 53 -1.5921948477625847e-02</internalNodes>
          <leafValues>
            2.7077788114547729e-01 -4.6926999092102051e-01</leafValues></_>
        <_>
          <internalNodes>
            0 -1 58 7.6839874964207411e-04</internalNodes>
          <leafValues>
            1.7291751503944397e-01 -5.7192158699035645e-01</leafValues></_>
        <_>
          <internalNodes>
            0 -1 105 2.0321016199886799e-03</internalNodes>
          <leafValues>
            -5.4841089248657227e-01 2.1318264305591583e-01</leafValues></_>
        <_>
          <internalNodes>
            0 -1 0 9.9904765374958515e-04</internalNodes>
          <leafValues>
            1.1733103543519974e-01 -7.7152651548385620e-01</leafValues></_>
        <_>
          <internalNodes>
            0 -1 120 -4.9382849829271436e-04</internalNodes>
          <leafValues>
            -3.5660916566848755e-01 2.5622561573982239e-01</leafValues></_>
        <_>
          <internalNodes>
            0 -1 141 -1.0493113659322262e-03</internalNodes>
          <leafValues>
            1.8045321106910706e-01 -5.0396907329559326e-01</leafValues></_>
        <_>
          <internalNodes>
            0 -1 63 -4.7730691730976105e-03</internalNodes>
          <leafValues>
            2.5504034757614136e-01 -3.9352115988731384e-01</leafValues></_>
        <_>
          <internalNodes>
            0 -1 24 -3.3901352435350418e-02</internalNodes>
          <leafValues>
            8.2830774784088135e-01 -1.2620602548122406e-01</leafValues></_>
        <_>
          <internalNodes>
            0 -1 34 1.4996924437582493e-03</internalNodes>
          <leafValues>
            -2.7982610464096069e-01 3.8981807231903076e-01</leafValues></_>
        <_>
          <internalNodes>
            0 -1 121 2.7247148100286722e-03</internalNodes>
          <leafValues>
            -8.2979607582092285e-01 1.2675207853317261e-01</leafValues></_>
        <_>
          <internalNodes>
            0 -1 163 -2.1558781736530364e-04</internalNodes>
          <leafValues>
            1.2200468033552170e-01 -6.5873748064041138e-01</leafValues></_>
        <_>
          <internalNodes>
            0 -1 28 3.2753031700849533e-03</internalNodes>
          <leafValues>
            -2.1872372925281525e-01 4.6087682247161865e-01</leafValues></_>
        <_>
          <internalNodes>
            0 -1 71 -6.7990766838192940e-03</internalNodes>
          <leafValues>
            4.8541998863220215e-01 -1.9118091464042664e-01</leafValues></_>
        <_>
          <internalNodes>
            0 -1 116 -1.8686648691073060e-03</internalNodes>
          <leafValues>
            1.9883850216865540e-01 -4.3539500236511230e-01</leafValues></_></weakClassifiers></_>
    <!-- stage 9 -->
    <_>
      <maxWeakCount>18</maxWeakCount>
      <stageThreshold>-1.3349646329879761e+00</stageThreshold>
      <weakClassifiers>
        <_>
          <internalNodes>
            0 -1 127 -1.0361019521951675e-01</internalNodes>
          <leafValues>
            4.8534896969795227e-01 -2.8887388110160828e-01</leafValues></_>
        <_>
          <internalNodes>
            0 -1 69 -8.7502505630254745e-04</internalNodes>
          <leafValues>
            5.3362739086151123e-01 -1.9260998070240021e-01</leafValues></_>
        <_>
          <internalNodes>
            0 -1 50 7.0935592520982027e-04</internalNodes>
          <leafValues>
            -1.4635798335075378e-01 8.0353760719299316e-01</leafValues></_>
        <_>
          <internalNodes>
            0 -1 96 -1.8260094802826643e-03</internalNodes>
          <leafValues>
            -6.5460050106048584e-01 1.7495533823966980e-01</leafValues></_>
        <_>
          <internalNodes>
            0 -1 89 6.5347016789019108e-04</internalNodes>
          <leafValues>
            1.6879794001579285e-01 -7.4063581228256226e-01</leafValues></_>
        <_>
          <internalNodes>
            0 -1 47 -1.4025032520294189e-02</internalNodes>
          <leafValues>
            7.6527637243270874e-01 -1.9313350319862366e-01</leafValues></_>
        <_>
          <internalNodes>
            0 -1 74 -4.3547647073864937e-03</internalNodes>
          <leafValues>
            2.9707118868827820e-01 -3.3670836687088013e-01</leafValues></_>
        <_>
          <internalNodes>
            0 -1 65 -2.0294304937124252e-02</internalNodes>
          <leafValues>
            -6.8736064434051514e-01 8.1987679004669189e-02</leafValues></_>
        <_>
          <internalNodes>
            0 -1 19 9.1597009450197220e-03</internalNodes>
          <leafValues>
            -3.2309427857398987e-01 2.6223117113113403e-01</leafValues></_>
        <_>
          <internalNodes>
            0 -1 62 8.1594157963991165e-03</internalNodes>
          <leafValues>
            -4.5272094011306763e-01 2.2501127421855927e-01</leafValues></_>
        <_>
          <internalNodes>
            0 -1 40 -1.9234921783208847e-02</internalNodes>
          <leafValues>
            3.2144126296043396e-01 -3.0323451757431030e-01</leafValues></_>
        <_>
          <internalNodes>
            0 -1 35 -1.4826422929763794e-01</internalNodes>
          <leafValues>
            -8.1044137477874756e-01 6.9905973970890045e-02</leafValues></_>
        <_>
          <internalNodes>
            0 -1 129 5.7738516479730606e-03</internalNodes>
          <leafValues>
            -7.6709622144699097e-01 8.4673188626766205e-02</leafValues></_>
        <_>
          <internalNodes>
            0 -1 2 5.3731969092041254e-04</internalNodes>
          <leafValues>
            9.5610633492469788e-02 -7.0890724658966064e-01</leafValues></_>
        <_>
          <internalNodes>
            0 -1 154 -8.9422239398118109e-05</internalNodes>
          <leafValues>
            9.8225161433219910e-02 -6.3563150167465210e-01</leafValues></_>
        <_>
          <internalNodes>
            0 -1 7 1.4504072070121765e-01</internalNodes>
          <leafValues>
            6.6920176148414612e-02 -8.1945180892944336e-01</leafValues></_>
        <_>
          <internalNodes>
            0 -1 11 8.2286819815635681e-03</internalNodes>
          <leafValues>
            -1.8801876902580261e-01 4.8961937427520752e-01</leafValues></_>
        <_>
          <internalNodes>
            0 -1 13 -5.3476248867809772e-03</internalNodes>
          <leafValues>
            4.2676034569740295e-01 -2.1093687415122986e-01</leafValues></_></weakClassifiers></_>
    <!-- stage 10 -->
    <_>
      <maxWeakCount>17</maxWeakCount>
      <stageThreshold>-1.2244379520416260e+00</stageThreshold>
      <weakClassifiers>
        <_>
          <internalNodes>
            0 -1 147 1.0432503186166286e-03</internalNodes>
          <leafValues>
            -3.2649815082550049e-01 4.8856744170188904e-01</leafValues></_>
        <_>
          <internalNodes>
            0 -1 81 -4.0960448980331421e-01</internalNodes>
          <leafValues>
            5.6433838605880737e-01 -2.2791703045368195e-01</leafValues></_>
        <_>
          <internalNodes>
            0 -1 64 -2.5262366980314255e-03</internalNodes>
          <leafValues>
            7.3336923122406006e-01 -1.5475435554981232e-01</leafValues></_>
        <_>
          <internalNodes>
            0 -1 59 1.6775205731391907e-03</internalNodes>
          <leafValues>
            -2.2395105659961700e-01 4.6823814511299133e-01</leafValues></_>
        <_>
          <internalNodes>
            0 -1 80 9.8665319383144379e-03</internalNodes>
          <leafValues>
            -3.7505179643630981e-01 2.5749030709266663e-01</leafValues></_>
        <_>
          <internalNodes>
            0 -1 118 -1.2896541506052017e-02</internalNodes>
          <leafValues>
            -1.8866954743862152e-01 4.8953762650489807e-01</leafValues></_>
        <_>
          <internalNodes>
            0 -1 22 -2.4682009825482965e-04</internalNodes>
          <leafValues>
            -6.2474429607391357e-01 1.8314450979232788e-01</leafValues></_>
        <_>
          <internalNodes>
            0 -1 142 -9.4469287432730198e-04</internalNodes>
          <leafValues>
            1.0282260924577713e-01 -6.2183558940887451e-01</leafValues></_>
        <_>
          <internalNodes>
            0 -1 56 7.8720618039369583e-03</internalNodes>
          <leafValues>
            -3.9992558956146240e-01 2.3657515645027161e-01</leafValues></_>
        <_>
          <internalNodes>
            0 -1 25 5.5678128264844418e-03</internalNodes>
          <leafValues>
            -2.1992665529251099e-01 3.9987751841545105e-01</leafValues></_>
        <_>
          <internalNodes>
            0 -1 31 9.1633840929716825e-04</internalNodes>
          <leafValues>
            1.5044175088405609e-01 -5.0727564096450806e-01</leafValues></_>
        <_>
          <internalNodes>
            0 -1 16 -3.1958359479904175e-01</internalNodes>
          <leafValues>
            8.4079623222351074e-01 -1.0203430801630020e-01</leafValues></_>
        <_>
          <internalNodes>
            0 -1 76 -7.1127405390143394e-03</internalNodes>
          <leafValues>
            2.3702517151832581e-01 -4.7935995459556580e-01</leafValues></_>
        <_>
          <internalNodes>
            0 -1 86 -1.7341962084174156e-03</internalNodes>
          <leafValues>
            -5.9659075736999512e-01 9.3044996261596680e-02</leafValues></_>
        <_>
          <internalNodes>
            0 -1 107 3.2979268580675125e-02</internalNodes>
          <leafValues>
            -8.0877757072448730e-01 8.5662767291069031e-02</leafValues></_>
        <_>
          <internalNodes>
            0 -1 156 3.6745767574757338e-03</internalNodes>
          <leafValues>
            1.3770969212055206e-01 -5.0369316339492798e-01</leafValues></_>
        <_>
          <internalNodes>
            0 -1 149 -5.1878676749765873e-03</internalNodes>
          <leafValues>
            1.9742570817470551e-01 -4.2068389058113098e-01</leafValues></_></weakClassifiers></_>
    <!-- stage 11 -->
    <_>
      <maxWeakCount>18</maxWeakCount>
      <stageThreshold>-1.3547405004501343e+00</stageThreshold>
      <weakClassifiers>
        <_>
          <internalNodes>
            0 -1 139 -9.9221337586641312e-03</internalNodes>
          <leafValues>
            1.6281823813915253e-01 -5.9458470344543457e-01</leafValues></_>
        <_>
          <internalNodes>
            0 -1 45 9.3494117259979248e-02</internalNodes>
          <leafValues>
            -4.3229597806930542e-01 3.5041078925132751e-01</leafValues></_>
        <_>
          <internalNodes>
            0 -1 79 5.8226322289556265e-04</internalNodes>
          <leafValues>
            1.4062045514583588e-01 -6.7732810974121094e-01</leafValues></_>
        <_>
          <internalNodes>
            0 -1 113 1.5418147668242455e-03</internalNodes>
          <leafValues>
            -6.6680967807769775e-01 1.6764365136623383e-01</leafValues></_>
        <_>
          <internalNodes>
            0 -1 49 2.6149994228035212e-03</internalNodes>
          <leafValues>
            1.2904499471187592e-01 -5.7390505075454712e-01</leafValues></_>
        <_>
          <internalNodes>
            0 -1 61 -2.4208906106650829e-03</internalNodes>
          <leafValues>
            6.3172250986099243e-01 -1.3486266136169434e-01</leafValues></_>
        <_>
          <internalNodes>
            0 -1 70 -9.4324105884879827e-04</internalNodes>
          <leafValues>
            5.5552035570144653e-01 -1.7823494970798492e-01</leafValues></_>
        <_>
          <internalNodes>
            0 -1 152 -3.8068166759330779e-05</internalNodes>
          <leafValues>
            2.8721925616264343e-01 -3.1281045079231262e-01</leafValues></_>
        <_>
          <internalNodes>
            0 -1 114 -8.5615977877750993e-04</internalNodes>
          <leafValues>
            7.6795384287834167e-02 -7.5066608190536499e-01</leafValues></_>
        <_>
          <internalNodes>
            0 -1 111 -1.3907282054424286e-01</internalNodes>
          <leafValues>
            -7.8483575582504272e-01 9.4879813492298126e-02</leafValues></_>
        <_>
          <internalNodes>
            0 -1 162 -7.3348084697499871e-05</internalNodes>
          <leafValues>
            1.3060118257999420e-01 -5.5190235376358032e-01</leafValues></_>
        <_>
          <internalNodes>
            0 -1 158 -2.1537865977734327e-03</internalNodes>
          <leafValues>
            -7.9237854480743408e-01 9.9540829658508301e-02</leafValues></_>
        <_>
          <internalNodes>
            0 -1 26 2.8569446876645088e-03</internalNodes>
          <leafValues>
            -2.7725973725318909e-01 3.3092489838600159e-01</leafValues></_>
        <_>
          <internalNodes>
            0 -1 143 -3.4297317266464233e-02</internalNodes>
          <leafValues>
            -2.9825741052627563e-01 3.0662748217582703e-01</leafValues></_>
        <_>
          <internalNodes>
            0 -1 60 -2.3335027508437634e-03</internalNodes>
          <leafValues>
            5.8699542284011841e-01 -1.4713759720325470e-01</leafValues></_>
        <_>
          <internalNodes>
            0 -1 133 -2.5283191353082657e-02</internalNodes>
          <leafValues>
            3.9649996161460876e-01 -2.0252953469753265e-01</leafValues></_>
        <_>
          <internalNodes>
            0 -1 46 1.2702330946922302e-01</internalNodes>
          <leafValues>
            1.2673939764499664e-01 -6.2781733274459839e-01</leafValues></_>
        <_>
          <internalNodes>
            0 -1 44 6.7183701321482658e-03</internalNodes>
          <leafValues>
            -1.2256325036287308e-01 5.8347052335739136e-01</leafValues></_></weakClassifiers></_>
    <!-- stage 12 -->
    <_>
      <maxWeakCount>20</maxWeakCount>
      <stageThreshold>-1.3349379301071167e+00</stageThreshold>
      <weakClassifiers>
        <_>
          <internalNodes>
            0 -1 42 1.0513991117477417e-01</internalNodes>
          <leafValues>
            -4.3469786643981934e-01 2.6623377203941345e-01</leafValues></_>
        <_>
          <internalNodes>
            0 -1 145 1.2967979535460472e-02</internalNodes>
          <leafValues>
            -3.7896651029586792e-01 2.1920147538185120e-01</leafValues></_>
        <_>
          <internalNodes>
            0 -1 52 -6.6672638058662415e-03</internalNodes>
          <leafValues>
            2.8997135162353516e-01 -2.9190433025360107e-01</leafValues></_>
        <_>
          <internalNodes>
            0 -1 51 -8.7432973086833954e-03</internalNodes>
          <leafValues>
            -6.3037931919097900e-01 1.7188759148120880e-01</leafValues></_>
        <_>
          <internalNodes>
            0 -1 5 -1.3067689538002014e-01</internalNodes>
          <leafValues>
            8.5351908206939697e-01 -1.3689625263214111e-01</leafValues></_>
        <_>
          <internalNodes>
            0 -1 32 -5.9993341565132141e-02</internalNodes>
          <leafValues>
            2.7867132425308228e-01 -3.9015740156173706e-01</leafValues></_>
        <_>
          <internalNodes>
            0 -1 67 5.0743413157761097e-04</internalNodes>
          <leafValues>
            -2.8410267829895020e-01 3.0234161019325256e-01</leafValues></_>
        <_>
          <internalNodes>
            0 -1 93 -2.3351229727268219e-02</internalNodes>
          <leafValues>
            -6.4648574590682983e-01 1.0012412816286087e-01</leafValues></_>
        <_>
          <internalNodes>
            0 -1 1 9.4143906608223915e-04</internalNodes>
          <leafValues>
            1.3313512504100800e-01 -6.2563574314117432e-01</leafValues></_>
        <_>
          <internalNodes>
            0 -1 23 -1.7416321206837893e-03</internalNodes>
          <leafValues>
            2.2411695122718811e-01 -3.7497648596763611e-01</leafValues></_>
        <_>
          <internalNodes>
            0 -1 115 -4.1655981913208961e-03</internalNodes>
          <leafValues>
            -8.9113128185272217e-01 1.1963371187448502e-01</leafValues></_>
        <_>
          <internalNodes>
            0 -1 77 2.9038530774414539e-03</internalNodes>
          <leafValues>
            -4.6946948766708374e-01 1.0163947194814682e-01</leafValues></_>
        <_>
          <internalNodes>
            0 -1 14 -2.9809051752090454e-01</internalNodes>
          <leafValues>
            9.0102529525756836e-01 -8.8972091674804688e-02</leafValues></_>
        <_>
          <internalNodes>
            0 -1 10 8.2213431596755981e-03</internalNodes>
          <leafValues>
            -3.5342398285865784e-01 2.1478575468063354e-01</leafValues></_>
        <_>
          <internalNodes>
            0 -1 134 6.2367999926209450e-03</internalNodes>
          <leafValues>
            -6.0856539011001587e-01 1.0452042520046234e-01</leafValues></_>
        <_>
          <internalNodes>
            0 -1 78 3.5474123433232307e-03</internalNodes>
          <leafValues>
            -2.2366948425769806e-01 3.0302560329437256e-01</leafValues></_>
        <_>
          <internalNodes>
            0 -1 161 -1.3544951798394322e-04</internalNodes>
          <leafValues>
            1.7412950098514557e-01 -4.5975282788276672e-01</leafValues></_>
        <_>
          <internalNodes>
            0 -1 91 -6.7640957422554493e-03</internalNodes>
          <leafValues>
            -4.9910300970077515e-01 1.4585584402084351e-01</leafValues></_>
        <_>
          <internalNodes>
            0 -1 73 6.4166926313191652e-04</internalNodes>
          <leafValues>
            1.2268564105033875e-01 -5.3991734981536865e-01</leafValues></_>
        <_>
          <internalNodes>
            0 -1 39 -1.9714694470167160e-02</internalNodes>
          <leafValues>
            4.6708604693412781e-01 -1.5393844246864319e-01</leafValues></_></weakClassifiers></_>
    <!-- stage 13 -->
    <_>
      <maxWeakCount>24</maxWeakCount>
      <stageThreshold>-1.2697545289993286e+00</stageThreshold>
      <weakClassifiers>
        <_>
          <internalNodes>
            0 -1 57 -9.0750046074390411e-03</internalNodes>
          <leafValues>
            3.8891661167144775e-01 -2.9471650719642639e-01</leafValues></_>
        <_>
          <internalNodes>
            0 -1 36 7.6123550534248352e-03</internalNodes>
          <leafValues>
            -2.2439169883728027e-01 4.7377440333366394e-01</leafValues></_>
        <_>
          <internalNodes>
            0 -1 132 -3.0046049505472183e-02</internalNodes>
          <leafValues>
            4.2083525657653809e-01 -1.7325009405612946e-01</leafValues></_>
        <_>
          <internalNodes>
            0 -1 128 -2.7583227492868900e-03</internalNodes>
          <leafValues>
            -1.6782952845096588e-01 4.0035128593444824e-01</leafValues></_>
        <_>
          <internalNodes>
            0 -1 94 2.8336800634860992e-02</internalNodes>
          <leafValues>
            -6.1494863033294678e-01 9.9835015833377838e-02</leafValues></_>
        <_>
          <internalNodes>
            0 -1 153 5.8440798893570900e-03</internalNodes>
          <leafValues>
            1.3009703159332275e-01 -5.3211510181427002e-01</leafValues></_>
        <_>
          <internalNodes>
            0 -1 54 3.7310194224119186e-02</internalNodes>
          <leafValues>
            -2.2673554718494415e-01 3.2936260104179382e-01</leafValues></_>
        <_>
          <internalNodes>
            0 -1 75 1.9244939088821411e-02</internalNodes>
          <leafValues>
            6.5943270921707153e-02 -8.1505501270294189e-01</leafValues></_>
        <_>
          <internalNodes>
            0 -1 37 2.1514181792736053e-01</internalNodes>
          <leafValues>
            5.7038471102714539e-02 -8.6533361673355103e-01</leafValues></_>
        <_>
          <internalNodes>
            0 -1 136 5.2364086732268333e-03</internalNodes>
          <leafValues>
            -6.5738219022750854e-01 7.6523467898368835e-02</leafValues></_>
        <_>
          <internalNodes>
            0 -1 15 -4.9927568761631846e-04</internalNodes>
          <leafValues>
            -5.0286817550659180e-01 1.0811781883239746e-01</leafValues></_>
        <_>
          <internalNodes>
            0 -1 151 2.3682223400101066e-05</internalNodes>
          <leafValues>
            -3.0677756667137146e-01 1.6966062784194946e-01</leafValues></_>
        <_>
          <internalNodes>
            0 -1 21 -2.4940480291843414e-01</internalNodes>
          <leafValues>
            7.7686828374862671e-01 -8.7586678564548492e-02</leafValues></_>
        <_>
          <internalNodes>
            0 -1 33 -9.4210336101241410e-06</internalNodes>
          <leafValues>
            1.5656104683876038e-01 -4.6464952826499939e-01</leafValues></_>
        <_>
          <internalNodes>
            0 -1 48 -1.2811891501769423e-03</internalNodes>
          <leafValues>
            -6.0329067707061768e-01 1.1676183342933655e-01</leafValues></_>
        <_>
          <internalNodes>
            0 -1 92 9.6622115233913064e-04</internalNodes>
          <leafValues>
            -2.5156229734420776e-01 2.0745609700679779e-01</leafValues></_>
        <_>
          <internalNodes>
            0 -1 87 2.9935736209154129e-02</internalNodes>
          <leafValues>
            1.0296133160591125e-01 -6.1107707023620605e-01</leafValues></_>
        <_>
          <internalNodes>
            0 -1 148 -7.5412454316392541e-04</internalNodes>
          <leafValues>
            -7.4649327993392944e-01 5.8270663022994995e-02</leafValues></_>
        <_>
          <internalNodes>
            0 -1 4 5.0695112440735102e-04</internalNodes>
          <leafValues>
            -2.4540202319622040e-01 2.2979299724102020e-01</leafValues></_>
        <_>
          <internalNodes>
            0 -1 6 -9.0656792744994164e-03</internalNodes>
          <leafValues>
            6.1327075958251953e-01 -1.4271575212478638e-01</leafValues></_>
        <_>
          <internalNodes>
            0 -1 29 7.2432924062013626e-03</internalNodes>
          <leafValues>
            -3.7312778830528259e-01 1.8476638197898865e-01</leafValues></_>
        <_>
          <internalNodes>
            0 -1 164 -2.6360748961451463e-05</internalNodes>
          <leafValues>
            1.2304148823022842e-01 -3.7009853124618530e-01</leafValues></_>
        <_>
          <internalNodes>
            0 -1 109 -4.7867730259895325e-02</internalNodes>
          <leafValues>
            -3.6399716138839722e-01 1.3857045769691467e-01</leafValues></_>
        <_>
          <internalNodes>
            0 -1 38 -7.1778423152863979e-03</internalNodes>
          <leafValues>
            4.1709062457084656e-01 -1.5511976182460785e-01</leafValues></_></weakClassifiers></_></stages>
  <features>
    <_>
      <rects>
        <_>
          0 0 1 16 -1.</_>
        <_>
          0 8 1 8 2.</_></rects>
      <tilted>0</tilted></_>
    <_>
      <rects>
        <_>
          0 0 2 24 -1.</_>
        <_>
          0 12 2 12 2.</_></rects>
      <tilted>0</tilted></_>
    <_>
      <rects>
        <_>
          0 0 6 4 -1.</_>
        <_>
          0 0 3 2 2.</_>
        <_>
          3 2 3 2 2.</_></rects>
      <tilted>0</tilted></_>
    <_>
      <rects>
        <_>
          0 0 3 30 -1.</_>
        <_>
          0 15 3 15 2.</_></rects>
      <tilted>0</tilted></_>
    <_>
      <rects>
        <_>
          0 0 30 2 -1.</_>
        <_>
          15 0 15 2 2.</_></rects>
      <tilted>0</tilted></_>
    <_>
      <rects>
        <_>
          0 0 32 25 -1.</_>
        <_>
          16 0 16 25 2.</_></rects>
      <tilted>0</tilted></_>
    <_>
      <rects>
        <_>
          0 0 36 1 -1.</_>
        <_>
          18 0 18 1 2.</_></rects>
      <tilted>0</tilted></_>
    <_>
      <rects>
        <_>
          0 0 24 28 -1.</_>
        <_>
          0 14 24 14 2.</_></rects>
      <tilted>0</tilted></_>
    <_>
      <rects>
        <_>
          0 3 8 31 -1.</_>
        <_>
          4 3 4 31 2.</_></rects>
      <tilted>0</tilted></_>
    <_>
      <rects>
        <_>
          0 5 8 24 -1.</_>
        <_>
          4 5 4 24 2.</_></rects>
      <tilted>0</tilted></_>
    <_>
      <rects>
        <_>
          0 5 12 27 -1.</_>
        <_>
          6 5 6 27 2.</_></rects>
      <tilted>0</tilted></_>
    <_>
      <rects>
        <_>
          0 7 8 24 -1.</_>
        <_>
          0 7 4 12 2.</_>
        <_>
          4 19 4 12 2.</_></rects>
      <tilted>0</tilted></_>
    <_>
      <rects>
        <_>
          0 7 8 34 -1.</_>
        <_>
          4 7 4 34 2.</_></rects>
      <tilted>0</tilted></_>
    <_>
      <rects>
        <_>
          0 8 8 26 -1.</_>
        <_>
          0 8 4 13 2.</_>
        <_>
          4 21 4 13 2.</_></rects>
      <tilted>0</tilted></_>
    <_>
      <rects>
        <_>
          0 9 44 39 -1.</_>
        <_>
          22 9 22 39 2.</_></rects>
      <tilted>0</tilted></_>
    <_>
      <rects>
        <_>
          0 10 2 6 -1.</_>
        <_>
          0 13 2 3 2.</_></rects>
      <tilted>0</tilted></_>
    <_>
      <rects>
        <_>
          0 10 48 38 -1.</_>
        <_>
          24 10 24 38 2.</_></rects>
      <tilted>0</tilted></_>
    <_>
      <rects>
        <_>
          0 11 32 13 -1.</_>
        <_>
          16 11 16 13 2.</_></rects>
      <tilted>0</tilted></_>
    <_>
      <rects>
        <_>
          0 11 32 24 -1.</_>
        <_>
          16 11 16 24 2.</_></rects>
      <tilted>0</tilted></_>
    <_>
      <rects>
        <_>
          0 12 10 21 -1.</_>
        <_>
          5 12 5 21 2.</_></rects>
      <tilted>0</tilted></_>
    <_>
      <rects>
        <_>
          0 12 34 23 -1.</_>
        <_>
          17 12 17 23 2.</_></rects>
      <tilted>0</tilted></_>
    <_>
      <rects>
        <_>
          0 28 48 20 -1.</_>
        <_>
          24 28 24 20 2.</_></rects>
      <tilted>0</tilted></_>
    <_>
      <rects>
        <_>
          0 32 1 6 -1.</_>
        <_>
          0 35 1 3 2.</_></rects>
      <tilted>0</tilted></_>
    <_>
      <rects>
        <_>
          0 38 9 2 -1.</_>
        <_>
          3 38 3 2 2.</_></rects>
      <tilted>0</tilted></_>
    <_>
      <rects>
        <_>
          1 0 32 3 -1.</_>
        <_>
          17 0 16 3 2.</_></rects>
      <tilted>0</tilted></_>
    <_>
      <rects>
        <_>
          1 1 6 23 -1.</_>
        <_>
          4 1 3 23 2.</_></rects>
      <tilted>0</tilted></_>
    <_>
      <rects>
        <_>
          1 6 4 28 -1.</_>
        <_>
          3 6 2 28 2.</_></rects>
      <tilted>0</tilted></_>
    <_>
      <rects>
        <_>
          1 6 6 20 -1.</_>
        <_>
          4 6 3 20 2.</_></rects>
      <tilted>0</tilted></_>
    <_>
      <rects>
        <_>
          1 11 4 20 -1.</_>
        <_>
          3 11 2 20 2.</_></rects>
      <tilted>0</tilted></_>
    <_>
      <rects>
        <_>
          1 13 16 17 -1.</_>
        <_>
          9 13 8 17 2.</_></rects>
      <tilted>0</tilted></_>
    <_>
      <rects>
        <_>
          1 18 15 11 -1.</_>
        <_>
          6 18 5 11 2.</_></rects>
      <tilted>0</tilted></_>
    <_>
      <rects>
        <_>
          3 4 25 4 -1.</_>
        <_>
          3 6 25 2 2.</_></rects>
      <tilted>0</tilted></_>
    <_>
      <rects>
        <_>
          4 12 13 36 -1.</_>
        <_>
          4 30 13 18 2.</_></rects>
      <tilted>0</tilted></_>
    <_>
      <rects>
        <_>
          4 35 9 8 -1.</_>
        <_>
          4 39 9 4 2.</_></rects>
      <tilted>0</tilted></_>
    <_>
      <rects>
        <_>
          5 0 38 2 -1.</_>
        <_>
          24 0 19 2 2.</_></rects>
      <tilted>0</tilted></_>
    <_>
      <rects>
        <_>
          5 0 19 38 -1.</_>
        <_>
          5 19 19 19 2.</_></rects>
      <tilted>0</tilted></_>
    <_>
      <rects>
        <_>
          5 5 5 22 -1.</_>
        <_>
          5 16 5 11 2.</_></rects>
      <tilted>0</tilted></_>
    <_>
      <rects>
        <_>
          5 7 30 23 -1.</_>
        <_>
          20 7 15 23 2.</_></rects>
      <tilted>0</tilted></_>
    <_>
      <rects>
        <_>
          6 8 3 18 -1.</_>
        <_>
          6 17 3 9 2.</_></rects>
      <tilted>0</tilted></_>
    <_>
      <rects>
        <_>
          6 8 10 16 -1.</_>
        <_>
          6 16 10 8 2.</_></rects>
      <tilted>0</tilted></_>
    <_>
      <rects>
        <_>
          6 11 3 33 -1.</_>
        <_>
          6 22 3 11 2.</_></rects>
      <tilted>0</tilted></_>
    <_>
      <rects>
        <_>
          6 38 6 8 -1.</_>
        <_>
          6 42 6 4 2.</_></rects>
      <tilted>0</tilted></_>
    <_>
      <rects>
        <_>
          7 0 22 40 -1.</_>
        <_>
          18 0 11 40 2.</_></rects>
      <tilted>0</tilted></_>
    <_>
      <rects>
        <_>
          7 6 28 21 -1.</_>
        <_>
          21 6 14 21 2.</_></rects>
      <tilted>0</tilted></_>
    <_>
      <rects>
        <_>
          7 16 6 14 -1.</_>
        <_>
          7 23 6 7 2.</_></rects>
      <tilted>0</tilted></_>
    <_>
      <rects>
        <_>
          8 0 22 48 -1.</_>
        <_>
          19 0 11 48 2.</_></rects>
      <tilted>0</tilted></_>
    <_>
      <rects>
        <_>
          8 0 38 30 -1.</_>
        <_>
          8 0 19 15 2.</_>
        <_>
          27 15 19 15 2.</_></rects>
      <tilted>0</tilted></_>
    <_>
      <rects>
        <_>
          8 10 11 8 -1.</_>
        <_>
          8 14 11 4 2.</_></rects>
      <tilted>0</tilted></_>
    <_>
      <rects>
        <_>
          8 35 5 6 -1.</_>
        <_>
          8 38 5 3 2.</_></rects>
      <tilted>0</tilted></_>
    <_>
      <rects>
        <_>
          9 7 4 25 -1.</_>
        <_>
          11 7 2 25 2.</_></rects>
      <tilted>0</tilted></_>
    <_>
      <rects>
        <_>
          9 7 8 27 -1.</_>
        <_>
          9 16 8 9 2.</_></rects>
      <tilted>0</tilted></_>
    <_>
      <rects>
        <_>
          10 10 1 34 -1.</_>
        <_>
          10 27 1 17 2.</_></rects>
      <tilted>0</tilted></_>
    <_>
      <rects>
        <_>
          10 12 4 20 -1.</_>
        <_>
          10 22 4 10 2.</_></rects>
      <tilted>0</tilted></_>
    <_>
      <rects>
        <_>
          10 25 18 20 -1.</_>
        <_>
          10 25 9 10 2.</_>
        <_>
          19 35 9 10 2.</_></rects>
      <tilted>0</tilted></_>
    <_>
      <rects>
        <_>
          11 0 12 41 -1.</_>
        <_>
          17 0 6 41 2.</_></rects>
      <tilted>0</tilted></_>
    <_>
      <rects>
        <_>
          11 0 20 6 -1.</_>
        <_>
          11 3 20 3 2.</_></rects>
      <tilted>0</tilted></_>
    <_>
      <rects>
        <_>
          11 4 12 18 -1.</_>
        <_>
          11 4 6 9 2.</_>
        <_>
          17 13 6 9 2.</_></rects>
      <tilted>0</tilted></_>
    <_>
      <rects>
        <_>
          11 10 3 18 -1.</_>
        <_>
          11 19 3 9 2.</_></rects>
      <tilted>0</tilted></_>
    <_>
      <rects>
        <_>
          12 3 25 4 -1.</_>
        <_>
          12 5 25 2 2.</_></rects>
      <tilted>0</tilted></_>
    <_>
      <rects>
        <_>
          12 7 1 14 -1.</_>
        <_>
          12 14 1 7 2.</_></rects>
      <tilted>0</tilted></_>
    <_>
      <rects>
        <_>
          12 12 6 4 -1.</_>
        <_>
          12 14 6 2 2.</_></rects>
      <tilted>0</tilted></_>
    <_>
      <rects>
        <_>
          12 15 6 4 -1.</_>
        <_>
          12 17 6 2 2.</_></rects>
      <tilted>0</tilted></_>
    <_>
      <rects>
        <_>
          13 0 12 22 -1.</_>
        <_>
          13 0 6 11 2.</_>
        <_>
          19 11 6 11 2.</_></rects>
      <tilted>0</tilted></_>
    <_>
      <rects>
        <_>
          13 10 1 38 -1.</_>
        <_>
          13 29 1 19 2.</_></rects>
      <tilted>0</tilted></_>
    <_>
      <rects>
        <_>
          13 12 3 6 -1.</_>
        <_>
          13 15 3 3 2.</_></rects>
      <tilted>0</tilted></_>
    <_>
      <rects>
        <_>
          13 38 35 3 -1.</_>
        <_>
          13 39 35 1 2.</_></rects>
      <tilted>0</tilted></_>
    <_>
      <rects>
        <_>
          14 0 12 36 -1.</_>
        <_>
          20 0 6 36 2.</_></rects>
      <tilted>0</tilted></_>
    <_>
      <rects>
        <_>
          14 0 30 1 -1.</_>
        <_>
          29 0 15 1 2.</_></rects>
      <tilted>0</tilted></_>
    <_>
      <rects>
        <_>
          14 2 16 29 -1.</_>
        <_>
          22 2 8 29 2.</_></rects>
      <tilted>0</tilted></_>
    <_>
      <rects>
        <_>
          14 15 3 4 -1.</_>
        <_>
          14 17 3 2 2.</_></rects>
      <tilted>0</tilted></_>
    <_>
      <rects>
        <_>
          14 20 2 4 -1.</_>
        <_>
          14 22 2 2 2.</_></rects>
      <tilted>0</tilted></_>
    <_>
      <rects>
        <_>
          14 21 6 18 -1.</_>
        <_>
          14 21 3 9 2.</_>
        <_>
          17 30 3 9 2.</_></rects>
      <tilted>0</tilted></_>
    <_>
      <rects>
        <_>
          15 0 17 4 -1.</_>
        <_>
          15 2 17 2 2.</_></rects>
      <tilted>0</tilted></_>
    <_>
      <rects>
        <_>
          15 4 14 4 -1.</_>
        <_>
          15 6 14 2 2.</_></rects>
      <tilted>0</tilted></_>
    <_>
      <rects>
        <_>
          15 30 18 18 -1.</_>
        <_>
          15 30 9 9 2.</_>
        <_>
          24 39 9 9 2.</_></rects>
      <tilted>0</tilted></_>
    <_>
      <rects>
        <_>
          16 0 2 28 -1.</_>
        <_>
          16 14 2 14 2.</_></rects>
      <tilted>0</tilted></_>
    <_>
      <rects>
        <_>
          16 2 2 46 -1.</_>
        <_>
          16 25 2 23 2.</_></rects>
      <tilted>0</tilted></_>
    <_>
      <rects>
        <_>
          16 7 12 13 -1.</_>
        <_>
          22 7 6 13 2.</_></rects>
      <tilted>0</tilted></_>
    <_>
      <rects>
        <_>
          16 30 8 16 -1.</_>
        <_>
          20 30 4 16 2.</_></rects>
      <tilted>0</tilted></_>
    <_>
      <rects>
        <_>
          17 2 20 4 -1.</_>
        <_>
          17 4 20 2 2.</_></rects>
      <tilted>0</tilted></_>
    <_>
      <rects>
        <_>
          17 3 12 23 -1.</_>
        <_>
          23 3 6 23 2.</_></rects>
      <tilted>0</tilted></_>
    <_>
      <rects>
        <_>
          17 13 27 34 -1.</_>
        <_>
          17 30 27 17 2.</_></rects>
      <tilted>0</tilted></_>
    <_>
      <rects>
        <_>
          17 14 23 34 -1.</_>
        <_>
          17 31 23 17 2.</_></rects>
      <tilted>0</tilted></_>
    <_>
      <rects>
        <_>
          17 15 25 32 -1.</_>
        <_>
          17 31 25 16 2.</_></rects>
      <tilted>0</tilted></_>
    <_>
      <rects>
        <_>
          18 15 25 32 -1.</_>
        <_>
          18 31 25 16 2.</_></rects>
      <tilted>0</tilted></_>
    <_>
      <rects>
        <_>
          18 40 27 6 -1.</_>
        <_>
          18 42 27 2 2.</_></rects>
      <tilted>0</tilted></_>
    <_>
      <rects>
        <_>
          19 0 7 8 -1.</_>
        <_>
          19 4 7 4 2.</_></rects>
      <tilted>0</tilted></_>
    <_>
      <rects>
        <_>
          19 0 14 42 -1.</_>
        <_>
          19 0 7 21 2.</_>
        <_>
          26 21 7 21 2.</_></rects>
      <tilted>0</tilted></_>
    <_>
      <rects>
        <_>
          20 0 20 48 -1.</_>
        <_>
          20 16 20 16 2.</_></rects>
      <tilted>0</tilted></_>
    <_>
      <rects>
        <_>
          20 1 17 4 -1.</_>
        <_>
          20 3 17 2 2.</_></rects>
      <tilted>0</tilted></_>
    <_>
      <rects>
        <_>
          20 16 21 32 -1.</_>
        <_>
          20 32 21 16 2.</_></rects>
      <tilted>0</tilted></_>
    <_>
      <rects>
        <_>
          20 32 7 3 -1.</_>
        <_>
          20 33 7 1 2.</_></rects>
      <tilted>0</tilted></_>
    <_>
      <rects>
        <_>
          20 33 10 6 -1.</_>
        <_>
          25 33 5 6 2.</_></rects>
      <tilted>0</tilted></_>
    <_>
      <rects>
        <_>
          20 37 24 6 -1.</_>
        <_>
          20 39 24 2 2.</_></rects>
      <tilted>0</tilted></_>
    <_>
      <rects>
        <_>
          21 1 14 18 -1.</_>
        <_>
          21 10 14 9 2.</_></rects>
      <tilted>0</tilted></_>
    <_>
      <rects>
        <_>
          21 21 24 10 -1.</_>
        <_>
          33 21 12 10 2.</_></rects>
      <tilted>0</tilted></_>
    <_>
      <rects>
        <_>
          22 0 11 6 -1.</_>
        <_>
          22 3 11 3 2.</_></rects>
      <tilted>0</tilted></_>
    <_>
      <rects>
        <_>
          22 16 20 32 -1.</_>
        <_>
          22 32 20 16 2.</_></rects>
      <tilted>0</tilted></_>
    <_>
      <rects>
        <_>
          23 0 2 22 -1.</_>
        <_>
          23 11 2 11 2.</_></rects>
      <tilted>0</tilted></_>
    <_>
      <rects>
        <_>
          23 0 20 48 -1.</_>
        <_>
          23 16 20 16 2.</_></rects>
      <tilted>0</tilted></_>
    <_>
      <rects>
        <_>
          23 1 9 18 -1.</_>
        <_>
          23 10 9 9 2.</_></rects>
      <tilted>0</tilted></_>
    <_>
      <rects>
        <_>
          24 0 1 24 -1.</_>
        <_>
          24 12 1 12 2.</_></rects>
      <tilted>0</tilted></_>
    <_>
      <rects>
        <_>
          24 8 24 11 -1.</_>
        <_>
          36 8 12 11 2.</_></rects>
      <tilted>0</tilted></_>
    <_>
      <rects>
        <_>
          24 19 19 28 -1.</_>
        <_>
          24 33 19 14 2.</_></rects>
      <tilted>0</tilted></_>
    <_>
      <rects>
        <_>
          24 40 12 1 -1.</_>
        <_>
          28 40 4 1 2.</_></rects>
      <tilted>0</tilted></_>
    <_>
      <rects>
        <_>
          25 0 1 18 -1.</_>
        <_>
          25 9 1 9 2.</_></rects>
      <tilted>0</tilted></_>
    <_>
      <rects>
        <_>
          25 0 4 20 -1.</_>
        <_>
          25 10 4 10 2.</_></rects>
      <tilted>0</tilted></_>
    <_>
      <rects>
        <_>
          25 0 23 26 -1.</_>
        <_>
          25 13 23 13 2.</_></rects>
      <tilted>0</tilted></_>
    <_>
      <rects>
        <_>
          25 1 9 2 -1.</_>
        <_>
          25 2 9 1 2.</_></rects>
      <tilted>0</tilted></_>
    <_>
      <rects>
        <_>
          25 10 6 33 -1.</_>
        <_>
          25 21 6 11 2.</_></rects>
      <tilted>0</tilted></_>
    <_>
      <rects>
        <_>
          25 12 20 12 -1.</_>
        <_>
          25 12 10 6 2.</_>
        <_>
          35 18 10 6 2.</_></rects>
      <tilted>0</tilted></_>
    <_>
      <rects>
        <_>
          26 6 22 42 -1.</_>
        <_>
          37 6 11 42 2.</_></rects>
      <tilted>0</tilted></_>
    <_>
      <rects>
        <_>
          26 41 11 6 -1.</_>
        <_>
          26 43 11 2 2.</_></rects>
      <tilted>0</tilted></_>
    <_>
      <rects>
        <_>
          27 0 1 18 -1.</_>
        <_>
          27 9 1 9 2.</_></rects>
      <tilted>0</tilted></_>
    <_>
      <rects>
        <_>
          27 30 2 12 -1.</_>
        <_>
          27 36 2 6 2.</_></rects>
      <tilted>0</tilted></_>
    <_>
      <rects>
        <_>
          28 0 10 8 -1.</_>
        <_>
          28 4 10 4 2.</_></rects>
      <tilted>0</tilted></_>
    <_>
      <rects>
        <_>
          28 33 4 12 -1.</_>
        <_>
          28 39 4 6 2.</_></rects>
      <tilted>0</tilted></_>
    <_>
      <rects>
        <_>
          29 43 3 3 -1.</_>
        <_>
          30 43 1 3 2.</_></rects>
      <tilted>0</tilted></_>
    <_>
      <rects>
        <_>
          30 18 3 27 -1.</_>
        <_>
          30 27 3 9 2.</_></rects>
      <tilted>0</tilted></_>
    <_>
      <rects>
        <_>
          31 0 15 48 -1.</_>
        <_>
          36 0 5 48 2.</_></rects>
      <tilted>0</tilted></_>
    <_>
      <rects>
        <_>
          31 43 3 3 -1.</_>
        <_>
          31 44 3 1 2.</_></rects>
      <tilted>0</tilted></_>
    <_>
      <rects>
        <_>
          32 0 16 30 -1.</_>
        <_>
          32 15 16 15 2.</_></rects>
      <tilted>0</tilted></_>
    <_>
      <rects>
        <_>
          32 31 1 14 -1.</_>
        <_>
          32 38 1 7 2.</_></rects>
      <tilted>0</tilted></_>
    <_>
      <rects>
        <_>
          33 32 1 14 -1.</_>
        <_>
          33 39 1 7 2.</_></rects>
      <tilted>0</tilted></_>
    <_>
      <rects>
        <_>
          34 0 8 48 -1.</_>
        <_>
          34 16 8 16 2.</_></rects>
      <tilted>0</tilted></_>
    <_>
      <rects>
        <_>
          34 2 11 42 -1.</_>
        <_>
          34 16 11 14 2.</_></rects>
      <tilted>0</tilted></_>
    <_>
      <rects>
        <_>
          34 15 5 30 -1.</_>
        <_>
          34 30 5 15 2.</_></rects>
      <tilted>0</tilted></_>
    <_>
      <rects>
        <_>
          34 16 7 28 -1.</_>
        <_>
          34 30 7 14 2.</_></rects>
      <tilted>0</tilted></_>
    <_>
      <rects>
        <_>
          34 41 11 6 -1.</_>
        <_>
          34 43 11 2 2.</_></rects>
      <tilted>0</tilted></_>
    <_>
      <rects>
        <_>
          36 10 12 38 -1.</_>
        <_>
          36 10 6 19 2.</_>
        <_>
          42 29 6 19 2.</_></rects>
      <tilted>0</tilted></_>
    <_>
      <rects>
        <_>
          36 12 12 18 -1.</_>
        <_>
          42 12 6 18 2.</_></rects>
      <tilted>0</tilted></_>
    <_>
      <rects>
        <_>
          36 15 12 12 -1.</_>
        <_>
          42 15 6 12 2.</_></rects>
      <tilted>0</tilted></_>
    <_>
      <rects>
        <_>
          36 16 2 28 -1.</_>
        <_>
          36 30 2 14 2.</_></rects>
      <tilted>0</tilted></_>
    <_>
      <rects>
        <_>
          36 18 2 26 -1.</_>
        <_>
          36 31 2 13 2.</_></rects>
      <tilted>0</tilted></_>
    <_>
      <rects>
        <_>
          37 7 9 20 -1.</_>
        <_>
          37 17 9 10 2.</_></rects>
      <tilted>0</tilted></_>
    <_>
      <rects>
        <_>
          38 0 10 26 -1.</_>
        <_>
          38 0 5 13 2.</_>
        <_>
          43 13 5 13 2.</_></rects>
      <tilted>0</tilted></_>
    <_>
      <rects>
        <_>
          38 0 10 28 -1.</_>
        <_>
          38 14 10 14 2.</_></rects>
      <tilted>0</tilted></_>
    <_>
      <rects>
        <_>
          38 12 10 36 -1.</_>
        <_>
          38 12 5 18 2.</_>
        <_>
          43 30 5 18 2.</_></rects>
      <tilted>0</tilted></_>
    <_>
      <rects>
        <_>
          38 14 10 34 -1.</_>
        <_>
          38 14 5 17 2.</_>
        <_>
          43 31 5 17 2.</_></rects>
      <tilted>0</tilted></_>
    <_>
      <rects>
        <_>
          38 16 10 8 -1.</_>
        <_>
          43 16 5 8 2.</_></rects>
      <tilted>0</tilted></_>
    <_>
      <rects>
        <_>
          38 17 10 10 -1.</_>
        <_>
          43 17 5 10 2.</_></rects>
      <tilted>0</tilted></_>
    <_>
      <rects>
        <_>
          38 21 10 1 -1.</_>
        <_>
          43 21 5 1 2.</_></rects>
      <tilted>0</tilted></_>
    <_>
      <rects>
        <_>
          38 24 10 2 -1.</_>
        <_>
          43 24 5 2 2.</_></rects>
      <tilted>0</tilted></_>
    <_>
      <rects>
        <_>
          39 11 9 30 -1.</_>
        <_>
          39 21 9 10 2.</_></rects>
      <tilted>0</tilted></_>
    <_>
      <rects>
        <_>
          39 24 7 18 -1.</_>
        <_>
          39 33 7 9 2.</_></rects>
      <tilted>0</tilted></_>
    <_>
      <rects>
        <_>
          40 17 8 26 -1.</_>
        <_>
          40 17 4 13 2.</_>
        <_>
          44 30 4 13 2.</_></rects>
      <tilted>0</tilted></_>
    <_>
      <rects>
        <_>
          40 22 8 4 -1.</_>
        <_>
          44 22 4 4 2.</_></rects>
      <tilted>0</tilted></_>
    <_>
      <rects>
        <_>
          41 6 1 33 -1.</_>
        <_>
          41 17 1 11 2.</_></rects>
      <tilted>0</tilted></_>
    <_>
      <rects>
        <_>
          41 21 7 2 -1.</_>
        <_>
          41 22 7 1 2.</_></rects>
      <tilted>0</tilted></_>
    <_>
      <rects>
        <_>
          41 26 5 12 -1.</_>
        <_>
          41 32 5 6 2.</_></rects>
      <tilted>0</tilted></_>
    <_>
      <rects>
        <_>
          42 26 6 8 -1.</_>
        <_>
          42 30 6 4 2.</_></rects>
      <tilted>0</tilted></_>
    <_>
      <rects>
        <_>
          42 38 6 4 -1.</_>
        <_>
          45 38 3 4 2.</_></rects>
      <tilted>0</tilted></_>
    <_>
      <rects>
        <_>
          44 0 1 14 -1.</_>
        <_>
          44 7 1 7 2.</_></rects>
      <tilted>0</tilted></_>
    <_>
      <rects>
        <_>
          45 0 3 22 -1.</_>
        <_>
          45 11 3 11 2.</_></rects>
      <tilted>0</tilted></_>
    <_>
      <rects>
        <_>
          45 27 3 10 -1.</_>
        <_>
          45 32 3 5 2.</_></rects>
      <tilted>0</tilted></_>
    <_>
      <rects>
        <_>
          46 0 1 18 -1.</_>
        <_>
          46 9 1 9 2.</_></rects>
      <tilted>0</tilted></_>
    <_>
      <rects>
        <_>
          46 0 2 30 -1.</_>
        <_>
          46 15 2 15 2.</_></rects>
      <tilted>0</tilted></_>
    <_>
      <rects>
        <_>
          46 6 1 32 -1.</_>
        <_>
          46 22 1 16 2.</_></rects>
      <tilted>0</tilted></_>
    <_>
      <rects>
        <_>
          47 0 1 22 -1.</_>
        <_>
          47 11 1 11 2.</_></rects>
      <tilted>0</tilted></_>
    <_>
      <rects>
        <_>
          47 0 1 34 -1.</_>
        <_>
          47 17 1 17 2.</_></rects>
      <tilted>0</tilted></_>
    <_>
      <rects>
        <_>
          47 0 1 38 -1.</_>
        <_>
          47 19 1 19 2.</_></rects>
      <tilted>0</tilted></_>
    <_>
      <rects>
        <_>
          47 1 1 34 -1.</_>
        <_>
          47 18 1 17 2.</_></rects>
      <tilted>0</tilted></_>
    <_>
      <rects>
        <_>
          47 1 1 36 -1.</_>
        <_>
          47 19 1 18 2.</_></rects>
      <tilted>0</tilted></_>
    <_>
      <rects>
        <_>
          47 12 1 28 -1.</_>
        <_>
          47 26 1 14 2.</_></rects>
      <tilted>0</tilted></_>
    <_>
      <rects>
        <_>
          47 13 1 16 -1.</_>
        <_>
          47 21 1 8 2.</_></rects>
      <tilted>0</tilted></_></features></cascade>
</opencv_storage>
